digraph Tree {
node [shape=box, style="filled, rounded", color="black", fontname="helvetica"] ;
edge [fontname="helvetica"] ;
0 [label="petal length (cm) <= 2.7\ngini = 0.67\nsamples = 93\nvalue = [50, 48, 52]\nclass = virginica", fillcolor="#fcfbfe"] ;
1 [label="gini = 0.0\nsamples = 33\nvalue = [50, 0, 0]\nclass = setosa", fillcolor="#e58139"] ;
0 -> 1 [labeldistance=2.5, labelangle=45, headlabel="True"] ;
2 [label="petal width (cm) <= 1.75\ngini = 0.5\nsamples = 60\nvalue = [0, 48, 52]\nclass = virginica", fillcolor="#f5f0fd"] ;
0 -> 2 [labeldistance=2.5, labelangle=-45, headlabel="False"] ;
3 [label="sepal width (cm) <= 2.65\ngini = 0.23\nsamples = 31\nvalue = [0, 46, 7]\nclass = versicolor", fillcolor="#57e994"] ;
2 -> 3 ;
4 [label="sepal length (cm) <= 5.9\ngini = 0.44\nsamples = 9\nvalue = [0, 10, 5]\nclass = versicolor", fillcolor="#9cf2c0"] ;
3 -> 4 ;
5 [label="gini = 0.0\nsamples = 5\nvalue = [0, 7, 0]\nclass = versicolor", fillcolor="#39e581"] ;
4 -> 5 ;
6 [label="petal width (cm) <= 1.2\ngini = 0.47\nsamples = 4\nvalue = [0, 3, 5]\nclass = virginica", fillcolor="#cdb0f5"] ;
4 -> 6 ;
7 [label="gini = 0.0\nsamples = 1\nvalue = [0, 2, 0]\nclass = versicolor", fillcolor="#39e581"] ;
6 -> 7 ;
8 [label="sepal length (cm) <= 6.15\ngini = 0.28\nsamples = 3\nvalue = [0, 1, 5]\nclass = virginica", fillcolor="#9a61ea"] ;
6 -> 8 ;
9 [label="gini = 0.0\nsamples = 2\nvalue = [0, 0, 5]\nclass = virginica", fillcolor="#8139e5"] ;
8 -> 9 ;
10 [label="gini = 0.0\nsamples = 1\nvalue = [0, 1, 0]\nclass = versicolor", fillcolor="#39e581"] ;
8 -> 10 ;
11 [label="petal length (cm) <= 5.05\ngini = 0.1\nsamples = 22\nvalue = [0, 36, 2]\nclass = versicolor", fillcolor="#44e688"] ;
3 -> 11 ;
12 [label="gini = 0.0\nsamples = 19\nvalue = [0, 35, 0]\nclass = versicolor", fillcolor="#39e581"] ;
11 -> 12 ;
13 [label="sepal length (cm) <= 6.15\ngini = 0.44\nsamples = 3\nvalue = [0, 1, 2]\nclass = virginica", fillcolor="#c09cf2"] ;
11 -> 13 ;
14 [label="gini = 0.0\nsamples = 1\nvalue = [0, 1, 0]\nclass = versicolor", fillcolor="#39e581"] ;
13 -> 14 ;
15 [label="gini = 0.0\nsamples = 2\nvalue = [0, 0, 2]\nclass = virginica", fillcolor="#8139e5"] ;
13 -> 15 ;
16 [label="petal width (cm) <= 1.85\ngini = 0.08\nsamples = 29\nvalue = [0, 2, 45]\nclass = virginica", fillcolor="#8742e6"] ;
2 -> 16 ;
17 [label="sepal length (cm) <= 5.95\ngini = 0.28\nsamples = 8\nvalue = [0, 2, 10]\nclass = virginica", fillcolor="#9a61ea"] ;
16 -> 17 ;
18 [label="petal length (cm) <= 4.95\ngini = 0.5\nsamples = 2\nvalue = [0, 2, 2]\nclass = versicolor", fillcolor="#ffffff"] ;
17 -> 18 ;
19 [label="gini = 0.0\nsamples = 1\nvalue = [0, 2, 0]\nclass = versicolor", fillcolor="#39e581"] ;
18 -> 19 ;
20 [label="gini = 0.0\nsamples = 1\nvalue = [0, 0, 2]\nclass = virginica", fillcolor="#8139e5"] ;
18 -> 20 ;
21 [label="gini = 0.0\nsamples = 6\nvalue = [0, 0, 8]\nclass = virginica", fillcolor="#8139e5"] ;
17 -> 21 ;
22 [label="gini = 0.0\nsamples = 21\nvalue = [0, 0, 35]\nclass = virginica", fillcolor="#8139e5"] ;
16 -> 22 ;
}